const int conv0_bias_lut[256] = {-407,
-407,
-407,
-391,
-375,
-375,
-375,
-342,
-309,
-309,
-309,
-299,
-288,
-288,
-288,
-287,
-285,
-285,
-285,
-284,
-282,
-282,
-282,
-279,
-275,
-275,
-275,
-265,
-254,
-254,
-254,
-250,
-245,
-245,
-245,
-244,
-243,
-243,
-243,
-242,
-242,
-242,
-242,
-240,
-237,
-237,
-237,
-233,
-229,
-229,
-229,
-228,
-227,
-227,
-227,
-226,
-226,
-226,
-226,
-213,
-201,
-201,
-201,
-198,
-195,
-195,
-195,
-193,
-192,
-192,
-192,
-188,
-184,
-184,
-184,
-183,
-183,
-183,
-183,
-181,
-178,
-178,
-178,
-163,
-148,
-148,
-148,
-146,
-144,
-144,
-144,
-134,
-124,
-124,
-124,
-120,
-117,
-117,
-117,
-113,
-109,
-109,
-109,
-108,
-107,
-107,
-107,
-102,
-97,
-97,
-97,
-91,
-85,
-85,
-85,
-80,
-76,
-76,
-76,
-76,
-75,
-75,
-75,
-74,
-72,
-72,
-72,
-57,
-42,
-42,
-42,
-42,
-42,
-42,
-42,
-41,
-41,
-41,
-41,
-40,
-39,
-39,
-39,
-33,
-28,
-28,
-28,
-16,
-4,
-4,
-4,
1,
6,
6,
6,
9,
11,
11,
11,
12,
13,
13,
13,
17,
20,
20,
20,
21,
21,
21,
21,
38,
55,
55,
55,
55,
56,
56,
56,
64,
73,
73,
73,
73,
74,
74,
74,
82,
90,
90,
90,
92,
95,
95,
95,
110,
125,
125,
125,
132,
139,
139,
139,
142,
144,
144,
144,
170,
195,
195,
195,
202,
209,
209,
209,
217,
226,
226,
226,
235,
245,
245,
245,
249,
254,
254,
254,
258,
262,
262,
262,
265,
267,
267,
267,
271,
275,
275,
275,
284,
293,
293,
293,
295,
298,
298,
298,
321,
345,
345,
345,
367,
390,
390,
390,
390};
