const float conv0_bias_lut[128] = {-0.4035,
-0.3973,
-0.3910,
-0.3848,
-0.3786,
-0.3724,
-0.3661,
-0.3599,
-0.3537,
-0.3475,
-0.3412,
-0.3350,
-0.3288,
-0.3226,
-0.3163,
-0.3101,
-0.3039,
-0.2977,
-0.2915,
-0.2852,
-0.2790,
-0.2728,
-0.2666,
-0.2603,
-0.2541,
-0.2479,
-0.2417,
-0.2354,
-0.2292,
-0.2230,
-0.2168,
-0.2105,
-0.2043,
-0.1981,
-0.1919,
-0.1856,
-0.1794,
-0.1732,
-0.1670,
-0.1607,
-0.1545,
-0.1483,
-0.1421,
-0.1358,
-0.1296,
-0.1234,
-0.1172,
-0.1109,
-0.1047,
-0.0985,
-0.0923,
-0.0861,
-0.0798,
-0.0736,
-0.0674,
-0.0612,
-0.0549,
-0.0487,
-0.0425,
-0.0363,
-0.0300,
-0.0238,
-0.0176,
-0.0114,
-0.0051,
0.0011,
0.0073,
0.0135,
0.0198,
0.0260,
0.0322,
0.0384,
0.0447,
0.0509,
0.0571,
0.0633,
0.0696,
0.0758,
0.0820,
0.0882,
0.0944,
0.1007,
0.1069,
0.1131,
0.1193,
0.1256,
0.1318,
0.1380,
0.1442,
0.1505,
0.1567,
0.1629,
0.1691,
0.1754,
0.1816,
0.1878,
0.1940,
0.2003,
0.2065,
0.2127,
0.2189,
0.2252,
0.2314,
0.2376,
0.2438,
0.2501,
0.2563,
0.2625,
0.2687,
0.2750,
0.2812,
0.2874,
0.2936,
0.2998,
0.3061,
0.3123,
0.3185,
0.3247,
0.3310,
0.3372,
0.3434,
0.3496,
0.3559,
0.3621,
0.3683,
0.3745,
0.3808,
0.3870};
