const float conv0_weights_lut[256] = {-0.6117,
-0.6068,
-0.6020,
-0.5972,
-0.5923,
-0.5875,
-0.5826,
-0.5778,
-0.5730,
-0.5681,
-0.5633,
-0.5585,
-0.5536,
-0.5488,
-0.5439,
-0.5391,
-0.5343,
-0.5294,
-0.5246,
-0.5197,
-0.5149,
-0.5101,
-0.5052,
-0.5004,
-0.4956,
-0.4907,
-0.4859,
-0.4810,
-0.4762,
-0.4714,
-0.4665,
-0.4617,
-0.4568,
-0.4520,
-0.4472,
-0.4423,
-0.4375,
-0.4326,
-0.4278,
-0.4230,
-0.4181,
-0.4133,
-0.4085,
-0.4036,
-0.3988,
-0.3939,
-0.3891,
-0.3843,
-0.3794,
-0.3746,
-0.3697,
-0.3649,
-0.3601,
-0.3552,
-0.3504,
-0.3456,
-0.3407,
-0.3359,
-0.3310,
-0.3262,
-0.3214,
-0.3165,
-0.3117,
-0.3068,
-0.3020,
-0.2972,
-0.2923,
-0.2875,
-0.2827,
-0.2778,
-0.2730,
-0.2681,
-0.2633,
-0.2585,
-0.2536,
-0.2488,
-0.2439,
-0.2391,
-0.2343,
-0.2294,
-0.2246,
-0.2197,
-0.2149,
-0.2101,
-0.2052,
-0.2004,
-0.1956,
-0.1907,
-0.1859,
-0.1810,
-0.1762,
-0.1714,
-0.1665,
-0.1617,
-0.1568,
-0.1520,
-0.1472,
-0.1423,
-0.1375,
-0.1327,
-0.1278,
-0.1230,
-0.1181,
-0.1133,
-0.1085,
-0.1036,
-0.0988,
-0.0939,
-0.0891,
-0.0843,
-0.0794,
-0.0746,
-0.0697,
-0.0649,
-0.0601,
-0.0552,
-0.0504,
-0.0456,
-0.0407,
-0.0359,
-0.0310,
-0.0262,
-0.0214,
-0.0165,
-0.0117,
-0.0068,
-0.0020,
0.0028,
0.0077,
0.0125,
0.0173,
0.0222,
0.0270,
0.0319,
0.0367,
0.0415,
0.0464,
0.0512,
0.0561,
0.0609,
0.0657,
0.0706,
0.0754,
0.0802,
0.0851,
0.0899,
0.0948,
0.0996,
0.1044,
0.1093,
0.1141,
0.1190,
0.1238,
0.1286,
0.1335,
0.1383,
0.1432,
0.1480,
0.1528,
0.1577,
0.1625,
0.1673,
0.1722,
0.1770,
0.1819,
0.1867,
0.1915,
0.1964,
0.2012,
0.2061,
0.2109,
0.2157,
0.2206,
0.2254,
0.2302,
0.2351,
0.2399,
0.2448,
0.2496,
0.2544,
0.2593,
0.2641,
0.2690,
0.2738,
0.2786,
0.2835,
0.2883,
0.2932,
0.2980,
0.3028,
0.3077,
0.3125,
0.3173,
0.3222,
0.3270,
0.3319,
0.3367,
0.3415,
0.3464,
0.3512,
0.3561,
0.3609,
0.3657,
0.3706,
0.3754,
0.3802,
0.3851,
0.3899,
0.3948,
0.3996,
0.4044,
0.4093,
0.4141,
0.4190,
0.4238,
0.4286,
0.4335,
0.4383,
0.4431,
0.4480,
0.4528,
0.4577,
0.4625,
0.4673,
0.4722,
0.4770,
0.4819,
0.4867,
0.4915,
0.4964,
0.5012,
0.5061,
0.5109,
0.5157,
0.5206,
0.5254,
0.5302,
0.5351,
0.5399,
0.5448,
0.5496,
0.5544,
0.5593,
0.5641,
0.5690,
0.5738,
0.5786,
0.5835,
0.5883,
0.5931,
0.5980,
0.6028,
0.6077,
0.6125,
0.6173,
0.6222};
