const float conv0_weights_lut[128] = {-0.6093,
-0.5996,
-0.5899,
-0.5802,
-0.5706,
-0.5609,
-0.5512,
-0.5415,
-0.5318,
-0.5222,
-0.5125,
-0.5028,
-0.4931,
-0.4835,
-0.4738,
-0.4641,
-0.4544,
-0.4447,
-0.4351,
-0.4254,
-0.4157,
-0.4060,
-0.3964,
-0.3867,
-0.3770,
-0.3673,
-0.3577,
-0.3480,
-0.3383,
-0.3286,
-0.3189,
-0.3093,
-0.2996,
-0.2899,
-0.2802,
-0.2706,
-0.2609,
-0.2512,
-0.2415,
-0.2318,
-0.2222,
-0.2125,
-0.2028,
-0.1931,
-0.1835,
-0.1738,
-0.1641,
-0.1544,
-0.1447,
-0.1351,
-0.1254,
-0.1157,
-0.1060,
-0.0964,
-0.0867,
-0.0770,
-0.0673,
-0.0577,
-0.0480,
-0.0383,
-0.0286,
-0.0189,
-0.0093,
0.0004,
0.0101,
0.0198,
0.0294,
0.0391,
0.0488,
0.0585,
0.0682,
0.0778,
0.0875,
0.0972,
0.1069,
0.1165,
0.1262,
0.1359,
0.1456,
0.1552,
0.1649,
0.1746,
0.1843,
0.1940,
0.2036,
0.2133,
0.2230,
0.2327,
0.2423,
0.2520,
0.2617,
0.2714,
0.2811,
0.2907,
0.3004,
0.3101,
0.3198,
0.3294,
0.3391,
0.3488,
0.3585,
0.3682,
0.3778,
0.3875,
0.3972,
0.4069,
0.4165,
0.4262,
0.4359,
0.4456,
0.4552,
0.4649,
0.4746,
0.4843,
0.4940,
0.5036,
0.5133,
0.5230,
0.5327,
0.5423,
0.5520,
0.5617,
0.5714,
0.5811,
0.5907,
0.6004,
0.6101,
0.6198};
