const float conv3_bias_lut[128] = {-0.1144,
-0.1123,
-0.1102,
-0.1081,
-0.1060,
-0.1039,
-0.1019,
-0.0998,
-0.0977,
-0.0956,
-0.0935,
-0.0914,
-0.0893,
-0.0873,
-0.0852,
-0.0831,
-0.0810,
-0.0789,
-0.0768,
-0.0748,
-0.0727,
-0.0706,
-0.0685,
-0.0664,
-0.0643,
-0.0622,
-0.0602,
-0.0581,
-0.0560,
-0.0539,
-0.0518,
-0.0497,
-0.0477,
-0.0456,
-0.0435,
-0.0414,
-0.0393,
-0.0372,
-0.0352,
-0.0331,
-0.0310,
-0.0289,
-0.0268,
-0.0247,
-0.0226,
-0.0206,
-0.0185,
-0.0164,
-0.0143,
-0.0122,
-0.0101,
-0.0081,
-0.0060,
-0.0039,
-0.0018,
0.0003,
0.0024,
0.0045,
0.0065,
0.0086,
0.0107,
0.0128,
0.0149,
0.0170,
0.0190,
0.0211,
0.0232,
0.0253,
0.0274,
0.0295,
0.0315,
0.0336,
0.0357,
0.0378,
0.0399,
0.0420,
0.0441,
0.0461,
0.0482,
0.0503,
0.0524,
0.0545,
0.0566,
0.0586,
0.0607,
0.0628,
0.0649,
0.0670,
0.0691,
0.0712,
0.0732,
0.0753,
0.0774,
0.0795,
0.0816,
0.0837,
0.0857,
0.0878,
0.0899,
0.0920,
0.0941,
0.0962,
0.0982,
0.1003,
0.1024,
0.1045,
0.1066,
0.1087,
0.1108,
0.1128,
0.1149,
0.1170,
0.1191,
0.1212,
0.1233,
0.1253,
0.1274,
0.1295,
0.1316,
0.1337,
0.1358,
0.1379,
0.1399,
0.1420,
0.1441,
0.1462,
0.1483,
0.1504};
