const float conv3_bias_lut[256] = {-0.1149,
-0.1138,
-0.1128,
-0.1118,
-0.1107,
-0.1097,
-0.1086,
-0.1076,
-0.1065,
-0.1055,
-0.1045,
-0.1034,
-0.1024,
-0.1013,
-0.1003,
-0.0992,
-0.0982,
-0.0972,
-0.0961,
-0.0951,
-0.0940,
-0.0930,
-0.0920,
-0.0909,
-0.0899,
-0.0888,
-0.0878,
-0.0867,
-0.0857,
-0.0847,
-0.0836,
-0.0826,
-0.0815,
-0.0805,
-0.0794,
-0.0784,
-0.0774,
-0.0763,
-0.0753,
-0.0742,
-0.0732,
-0.0721,
-0.0711,
-0.0701,
-0.0690,
-0.0680,
-0.0669,
-0.0659,
-0.0649,
-0.0638,
-0.0628,
-0.0617,
-0.0607,
-0.0596,
-0.0586,
-0.0576,
-0.0565,
-0.0555,
-0.0544,
-0.0534,
-0.0523,
-0.0513,
-0.0503,
-0.0492,
-0.0482,
-0.0471,
-0.0461,
-0.0451,
-0.0440,
-0.0430,
-0.0419,
-0.0409,
-0.0398,
-0.0388,
-0.0378,
-0.0367,
-0.0357,
-0.0346,
-0.0336,
-0.0325,
-0.0315,
-0.0305,
-0.0294,
-0.0284,
-0.0273,
-0.0263,
-0.0253,
-0.0242,
-0.0232,
-0.0221,
-0.0211,
-0.0200,
-0.0190,
-0.0180,
-0.0169,
-0.0159,
-0.0148,
-0.0138,
-0.0127,
-0.0117,
-0.0107,
-0.0096,
-0.0086,
-0.0075,
-0.0065,
-0.0054,
-0.0044,
-0.0034,
-0.0023,
-0.0013,
-0.0002,
0.0008,
0.0018,
0.0029,
0.0039,
0.0050,
0.0060,
0.0071,
0.0081,
0.0091,
0.0102,
0.0112,
0.0123,
0.0133,
0.0144,
0.0154,
0.0164,
0.0175,
0.0185,
0.0196,
0.0206,
0.0216,
0.0227,
0.0237,
0.0248,
0.0258,
0.0269,
0.0279,
0.0289,
0.0300,
0.0310,
0.0321,
0.0331,
0.0342,
0.0352,
0.0362,
0.0373,
0.0383,
0.0394,
0.0404,
0.0414,
0.0425,
0.0435,
0.0446,
0.0456,
0.0467,
0.0477,
0.0487,
0.0498,
0.0508,
0.0519,
0.0529,
0.0540,
0.0550,
0.0560,
0.0571,
0.0581,
0.0592,
0.0602,
0.0613,
0.0623,
0.0633,
0.0644,
0.0654,
0.0665,
0.0675,
0.0685,
0.0696,
0.0706,
0.0717,
0.0727,
0.0738,
0.0748,
0.0758,
0.0769,
0.0779,
0.0790,
0.0800,
0.0811,
0.0821,
0.0831,
0.0842,
0.0852,
0.0863,
0.0873,
0.0883,
0.0894,
0.0904,
0.0915,
0.0925,
0.0936,
0.0946,
0.0956,
0.0967,
0.0977,
0.0988,
0.0998,
0.1009,
0.1019,
0.1029,
0.1040,
0.1050,
0.1061,
0.1071,
0.1081,
0.1092,
0.1102,
0.1113,
0.1123,
0.1134,
0.1144,
0.1154,
0.1165,
0.1175,
0.1186,
0.1196,
0.1207,
0.1217,
0.1227,
0.1238,
0.1248,
0.1259,
0.1269,
0.1280,
0.1290,
0.1300,
0.1311,
0.1321,
0.1332,
0.1342,
0.1352,
0.1363,
0.1373,
0.1384,
0.1394,
0.1405,
0.1415,
0.1425,
0.1436,
0.1446,
0.1457,
0.1467,
0.1478,
0.1488,
0.1498,
0.1509};
