const int conv6_bias_lut[256] = {-196,
-196,
-196,
-179,
-162,
-162,
-162,
-134,
-106,
-106,
-106,
-103,
-100,
-100,
-100,
-99,
-99,
-99,
-99,
-97,
-95,
-95,
-95,
-95,
-94,
-94,
-94,
-92,
-89,
-89,
-89,
-89,
-88,
-88,
-88,
-88,
-88,
-88,
-88,
-87,
-86,
-86,
-86,
-86,
-86,
-86,
-86,
-86,
-86,
-86,
-86,
-80,
-75,
-75,
-75,
-74,
-74,
-74,
-74,
-73,
-72,
-72,
-72,
-65,
-59,
-59,
-59,
-57,
-55,
-55,
-55,
-53,
-51,
-51,
-51,
-47,
-43,
-43,
-43,
-42,
-41,
-41,
-41,
-40,
-40,
-40,
-40,
-38,
-36,
-36,
-36,
-34,
-32,
-32,
-32,
-30,
-28,
-28,
-28,
-28,
-28,
-28,
-28,
-25,
-22,
-22,
-22,
-22,
-22,
-22,
-22,
-19,
-16,
-16,
-16,
-16,
-15,
-15,
-15,
-14,
-13,
-13,
-13,
-13,
-13,
-13,
-13,
-12,
-12,
-12,
-12,
-11,
-10,
-10,
-10,
-10,
-9,
-9,
-9,
-6,
-2,
-2,
-2,
-2,
-1,
-1,
-1,
1,
3,
3,
3,
5,
8,
8,
8,
10,
12,
12,
12,
12,
12,
12,
12,
13,
13,
13,
13,
13,
13,
13,
13,
15,
17,
17,
17,
18,
20,
20,
20,
21,
23,
23,
23,
23,
23,
23,
23,
24,
24,
24,
24,
26,
28,
28,
28,
32,
35,
35,
35,
37,
38,
38,
38,
42,
46,
46,
46,
50,
54,
54,
54,
58,
63,
63,
63,
64,
66,
66,
66,
68,
70,
70,
70,
74,
78,
78,
78,
79,
79,
79,
79,
82,
84,
84,
84,
90,
97,
97,
97,
100,
103,
103,
103,
123,
142,
142,
142,
147,
153,
153,
153,
163,
174,
174,
174,
174};
