const float conv6_bias_lut[128] = {-0.1942,
-0.1913,
-0.1884,
-0.1855,
-0.1826,
-0.1797,
-0.1768,
-0.1739,
-0.1710,
-0.1682,
-0.1653,
-0.1624,
-0.1595,
-0.1566,
-0.1537,
-0.1508,
-0.1479,
-0.1450,
-0.1422,
-0.1393,
-0.1364,
-0.1335,
-0.1306,
-0.1277,
-0.1248,
-0.1219,
-0.1190,
-0.1162,
-0.1133,
-0.1104,
-0.1075,
-0.1046,
-0.1017,
-0.0988,
-0.0959,
-0.0930,
-0.0901,
-0.0873,
-0.0844,
-0.0815,
-0.0786,
-0.0757,
-0.0728,
-0.0699,
-0.0670,
-0.0641,
-0.0613,
-0.0584,
-0.0555,
-0.0526,
-0.0497,
-0.0468,
-0.0439,
-0.0410,
-0.0381,
-0.0353,
-0.0324,
-0.0295,
-0.0266,
-0.0237,
-0.0208,
-0.0179,
-0.0150,
-0.0121,
-0.0093,
-0.0064,
-0.0035,
-0.0006,
0.0023,
0.0052,
0.0081,
0.0110,
0.0139,
0.0167,
0.0196,
0.0225,
0.0254,
0.0283,
0.0312,
0.0341,
0.0370,
0.0399,
0.0427,
0.0456,
0.0485,
0.0514,
0.0543,
0.0572,
0.0601,
0.0630,
0.0659,
0.0687,
0.0716,
0.0745,
0.0774,
0.0803,
0.0832,
0.0861,
0.0890,
0.0919,
0.0948,
0.0976,
0.1005,
0.1034,
0.1063,
0.1092,
0.1121,
0.1150,
0.1179,
0.1208,
0.1236,
0.1265,
0.1294,
0.1323,
0.1352,
0.1381,
0.1410,
0.1439,
0.1468,
0.1496,
0.1525,
0.1554,
0.1583,
0.1612,
0.1641,
0.1670,
0.1699,
0.1728};
