const float conv6_bias_lut[256] = {-0.1949,
-0.1934,
-0.1920,
-0.1905,
-0.1891,
-0.1877,
-0.1862,
-0.1848,
-0.1833,
-0.1819,
-0.1804,
-0.1790,
-0.1775,
-0.1761,
-0.1747,
-0.1732,
-0.1718,
-0.1703,
-0.1689,
-0.1674,
-0.1660,
-0.1645,
-0.1631,
-0.1617,
-0.1602,
-0.1588,
-0.1573,
-0.1559,
-0.1544,
-0.1530,
-0.1515,
-0.1501,
-0.1487,
-0.1472,
-0.1458,
-0.1443,
-0.1429,
-0.1414,
-0.1400,
-0.1385,
-0.1371,
-0.1357,
-0.1342,
-0.1328,
-0.1313,
-0.1299,
-0.1284,
-0.1270,
-0.1255,
-0.1241,
-0.1227,
-0.1212,
-0.1198,
-0.1183,
-0.1169,
-0.1154,
-0.1140,
-0.1125,
-0.1111,
-0.1097,
-0.1082,
-0.1068,
-0.1053,
-0.1039,
-0.1024,
-0.1010,
-0.0995,
-0.0981,
-0.0966,
-0.0952,
-0.0938,
-0.0923,
-0.0909,
-0.0894,
-0.0880,
-0.0865,
-0.0851,
-0.0836,
-0.0822,
-0.0808,
-0.0793,
-0.0779,
-0.0764,
-0.0750,
-0.0735,
-0.0721,
-0.0706,
-0.0692,
-0.0678,
-0.0663,
-0.0649,
-0.0634,
-0.0620,
-0.0605,
-0.0591,
-0.0576,
-0.0562,
-0.0548,
-0.0533,
-0.0519,
-0.0504,
-0.0490,
-0.0475,
-0.0461,
-0.0446,
-0.0432,
-0.0418,
-0.0403,
-0.0389,
-0.0374,
-0.0360,
-0.0345,
-0.0331,
-0.0316,
-0.0302,
-0.0288,
-0.0273,
-0.0259,
-0.0244,
-0.0230,
-0.0215,
-0.0201,
-0.0186,
-0.0172,
-0.0158,
-0.0143,
-0.0129,
-0.0114,
-0.0100,
-0.0085,
-0.0071,
-0.0056,
-0.0042,
-0.0028,
-0.0013,
0.0001,
0.0016,
0.0030,
0.0045,
0.0059,
0.0074,
0.0088,
0.0102,
0.0117,
0.0131,
0.0146,
0.0160,
0.0175,
0.0189,
0.0204,
0.0218,
0.0232,
0.0247,
0.0261,
0.0276,
0.0290,
0.0305,
0.0319,
0.0334,
0.0348,
0.0362,
0.0377,
0.0391,
0.0406,
0.0420,
0.0435,
0.0449,
0.0464,
0.0478,
0.0492,
0.0507,
0.0521,
0.0536,
0.0550,
0.0565,
0.0579,
0.0594,
0.0608,
0.0622,
0.0637,
0.0651,
0.0666,
0.0680,
0.0695,
0.0709,
0.0724,
0.0738,
0.0752,
0.0767,
0.0781,
0.0796,
0.0810,
0.0825,
0.0839,
0.0854,
0.0868,
0.0883,
0.0897,
0.0911,
0.0926,
0.0940,
0.0955,
0.0969,
0.0984,
0.0998,
0.1013,
0.1027,
0.1041,
0.1056,
0.1070,
0.1085,
0.1099,
0.1114,
0.1128,
0.1143,
0.1157,
0.1171,
0.1186,
0.1200,
0.1215,
0.1229,
0.1244,
0.1258,
0.1273,
0.1287,
0.1301,
0.1316,
0.1330,
0.1345,
0.1359,
0.1374,
0.1388,
0.1403,
0.1417,
0.1431,
0.1446,
0.1460,
0.1475,
0.1489,
0.1504,
0.1518,
0.1533,
0.1547,
0.1561,
0.1576,
0.1590,
0.1605,
0.1619,
0.1634,
0.1648,
0.1663,
0.1677,
0.1691,
0.1706,
0.1720,
0.1735};
