const float conv6_weights_lut[256] = {-0.1638,
-0.1625,
-0.1612,
-0.1599,
-0.1586,
-0.1573,
-0.1560,
-0.1547,
-0.1535,
-0.1522,
-0.1509,
-0.1496,
-0.1483,
-0.1470,
-0.1457,
-0.1444,
-0.1432,
-0.1419,
-0.1406,
-0.1393,
-0.1380,
-0.1367,
-0.1354,
-0.1341,
-0.1329,
-0.1316,
-0.1303,
-0.1290,
-0.1277,
-0.1264,
-0.1251,
-0.1238,
-0.1226,
-0.1213,
-0.1200,
-0.1187,
-0.1174,
-0.1161,
-0.1148,
-0.1135,
-0.1123,
-0.1110,
-0.1097,
-0.1084,
-0.1071,
-0.1058,
-0.1045,
-0.1032,
-0.1020,
-0.1007,
-0.0994,
-0.0981,
-0.0968,
-0.0955,
-0.0942,
-0.0929,
-0.0917,
-0.0904,
-0.0891,
-0.0878,
-0.0865,
-0.0852,
-0.0839,
-0.0826,
-0.0814,
-0.0801,
-0.0788,
-0.0775,
-0.0762,
-0.0749,
-0.0736,
-0.0723,
-0.0711,
-0.0698,
-0.0685,
-0.0672,
-0.0659,
-0.0646,
-0.0633,
-0.0620,
-0.0608,
-0.0595,
-0.0582,
-0.0569,
-0.0556,
-0.0543,
-0.0530,
-0.0517,
-0.0505,
-0.0492,
-0.0479,
-0.0466,
-0.0453,
-0.0440,
-0.0427,
-0.0414,
-0.0402,
-0.0389,
-0.0376,
-0.0363,
-0.0350,
-0.0337,
-0.0324,
-0.0311,
-0.0299,
-0.0286,
-0.0273,
-0.0260,
-0.0247,
-0.0234,
-0.0221,
-0.0208,
-0.0196,
-0.0183,
-0.0170,
-0.0157,
-0.0144,
-0.0131,
-0.0118,
-0.0105,
-0.0093,
-0.0080,
-0.0067,
-0.0054,
-0.0041,
-0.0028,
-0.0015,
-0.0002,
0.0010,
0.0023,
0.0036,
0.0049,
0.0062,
0.0075,
0.0088,
0.0101,
0.0113,
0.0126,
0.0139,
0.0152,
0.0165,
0.0178,
0.0191,
0.0204,
0.0216,
0.0229,
0.0242,
0.0255,
0.0268,
0.0281,
0.0294,
0.0307,
0.0319,
0.0332,
0.0345,
0.0358,
0.0371,
0.0384,
0.0397,
0.0410,
0.0423,
0.0435,
0.0448,
0.0461,
0.0474,
0.0487,
0.0500,
0.0513,
0.0526,
0.0538,
0.0551,
0.0564,
0.0577,
0.0590,
0.0603,
0.0616,
0.0629,
0.0641,
0.0654,
0.0667,
0.0680,
0.0693,
0.0706,
0.0719,
0.0732,
0.0744,
0.0757,
0.0770,
0.0783,
0.0796,
0.0809,
0.0822,
0.0835,
0.0847,
0.0860,
0.0873,
0.0886,
0.0899,
0.0912,
0.0925,
0.0938,
0.0950,
0.0963,
0.0976,
0.0989,
0.1002,
0.1015,
0.1028,
0.1041,
0.1053,
0.1066,
0.1079,
0.1092,
0.1105,
0.1118,
0.1131,
0.1144,
0.1156,
0.1169,
0.1182,
0.1195,
0.1208,
0.1221,
0.1234,
0.1247,
0.1259,
0.1272,
0.1285,
0.1298,
0.1311,
0.1324,
0.1337,
0.1350,
0.1362,
0.1375,
0.1388,
0.1401,
0.1414,
0.1427,
0.1440,
0.1453,
0.1465,
0.1478,
0.1491,
0.1504,
0.1517,
0.1530,
0.1543,
0.1556,
0.1568,
0.1581,
0.1594,
0.1607,
0.1620,
0.1633,
0.1646};
