const float conv6_weights_lut[128] = {-0.1631,
-0.1605,
-0.1580,
-0.1554,
-0.1528,
-0.1502,
-0.1477,
-0.1451,
-0.1425,
-0.1399,
-0.1374,
-0.1348,
-0.1322,
-0.1296,
-0.1271,
-0.1245,
-0.1219,
-0.1193,
-0.1168,
-0.1142,
-0.1116,
-0.1090,
-0.1065,
-0.1039,
-0.1013,
-0.0987,
-0.0962,
-0.0936,
-0.0910,
-0.0884,
-0.0859,
-0.0833,
-0.0807,
-0.0781,
-0.0756,
-0.0730,
-0.0704,
-0.0678,
-0.0653,
-0.0627,
-0.0601,
-0.0575,
-0.0550,
-0.0524,
-0.0498,
-0.0472,
-0.0447,
-0.0421,
-0.0395,
-0.0369,
-0.0344,
-0.0318,
-0.0292,
-0.0266,
-0.0241,
-0.0215,
-0.0189,
-0.0163,
-0.0138,
-0.0112,
-0.0086,
-0.0060,
-0.0035,
-0.0009,
0.0017,
0.0043,
0.0068,
0.0094,
0.0120,
0.0146,
0.0171,
0.0197,
0.0223,
0.0249,
0.0274,
0.0300,
0.0326,
0.0352,
0.0377,
0.0403,
0.0429,
0.0455,
0.0480,
0.0506,
0.0532,
0.0558,
0.0583,
0.0609,
0.0635,
0.0661,
0.0686,
0.0712,
0.0738,
0.0764,
0.0789,
0.0815,
0.0841,
0.0867,
0.0892,
0.0918,
0.0944,
0.0970,
0.0995,
0.1021,
0.1047,
0.1073,
0.1098,
0.1124,
0.1150,
0.1176,
0.1201,
0.1227,
0.1253,
0.1279,
0.1304,
0.1330,
0.1356,
0.1382,
0.1407,
0.1433,
0.1459,
0.1485,
0.1510,
0.1536,
0.1562,
0.1588,
0.1613,
0.1639};
