const float fc1_weights_lut[256] = {-0.2253,
-0.2238,
-0.2222,
-0.2207,
-0.2192,
-0.2176,
-0.2161,
-0.2146,
-0.2130,
-0.2115,
-0.2099,
-0.2084,
-0.2069,
-0.2053,
-0.2038,
-0.2023,
-0.2007,
-0.1992,
-0.1976,
-0.1961,
-0.1946,
-0.1930,
-0.1915,
-0.1900,
-0.1884,
-0.1869,
-0.1854,
-0.1838,
-0.1823,
-0.1807,
-0.1792,
-0.1777,
-0.1761,
-0.1746,
-0.1731,
-0.1715,
-0.1700,
-0.1684,
-0.1669,
-0.1654,
-0.1638,
-0.1623,
-0.1608,
-0.1592,
-0.1577,
-0.1562,
-0.1546,
-0.1531,
-0.1515,
-0.1500,
-0.1485,
-0.1469,
-0.1454,
-0.1439,
-0.1423,
-0.1408,
-0.1392,
-0.1377,
-0.1362,
-0.1346,
-0.1331,
-0.1316,
-0.1300,
-0.1285,
-0.1270,
-0.1254,
-0.1239,
-0.1223,
-0.1208,
-0.1193,
-0.1177,
-0.1162,
-0.1147,
-0.1131,
-0.1116,
-0.1100,
-0.1085,
-0.1070,
-0.1054,
-0.1039,
-0.1024,
-0.1008,
-0.0993,
-0.0978,
-0.0962,
-0.0947,
-0.0931,
-0.0916,
-0.0901,
-0.0885,
-0.0870,
-0.0855,
-0.0839,
-0.0824,
-0.0808,
-0.0793,
-0.0778,
-0.0762,
-0.0747,
-0.0732,
-0.0716,
-0.0701,
-0.0686,
-0.0670,
-0.0655,
-0.0639,
-0.0624,
-0.0609,
-0.0593,
-0.0578,
-0.0563,
-0.0547,
-0.0532,
-0.0516,
-0.0501,
-0.0486,
-0.0470,
-0.0455,
-0.0440,
-0.0424,
-0.0409,
-0.0394,
-0.0378,
-0.0363,
-0.0347,
-0.0332,
-0.0317,
-0.0301,
-0.0286,
-0.0271,
-0.0255,
-0.0240,
-0.0224,
-0.0209,
-0.0194,
-0.0178,
-0.0163,
-0.0148,
-0.0132,
-0.0117,
-0.0102,
-0.0086,
-0.0071,
-0.0055,
-0.0040,
-0.0025,
-0.0009,
0.0006,
0.0021,
0.0037,
0.0052,
0.0068,
0.0083,
0.0098,
0.0114,
0.0129,
0.0144,
0.0160,
0.0175,
0.0190,
0.0206,
0.0221,
0.0237,
0.0252,
0.0267,
0.0283,
0.0298,
0.0313,
0.0329,
0.0344,
0.0360,
0.0375,
0.0390,
0.0406,
0.0421,
0.0436,
0.0452,
0.0467,
0.0482,
0.0498,
0.0513,
0.0529,
0.0544,
0.0559,
0.0575,
0.0590,
0.0605,
0.0621,
0.0636,
0.0652,
0.0667,
0.0682,
0.0698,
0.0713,
0.0728,
0.0744,
0.0759,
0.0774,
0.0790,
0.0805,
0.0821,
0.0836,
0.0851,
0.0867,
0.0882,
0.0897,
0.0913,
0.0928,
0.0944,
0.0959,
0.0974,
0.0990,
0.1005,
0.1020,
0.1036,
0.1051,
0.1066,
0.1082,
0.1097,
0.1113,
0.1128,
0.1143,
0.1159,
0.1174,
0.1189,
0.1205,
0.1220,
0.1236,
0.1251,
0.1266,
0.1282,
0.1297,
0.1312,
0.1328,
0.1343,
0.1358,
0.1374,
0.1389,
0.1405,
0.1420,
0.1435,
0.1451,
0.1466,
0.1481,
0.1497,
0.1512,
0.1528,
0.1543,
0.1558,
0.1574,
0.1589,
0.1604,
0.1620,
0.1635,
0.1650,
0.1666};
