const int fc2_bias_lut[256] = {-411,
-411,
-411,
-411,
-411,
-411,
-411,
-411,
-411,
-411,
-411,
-411,
-411,
-411,
-411,
-411,
-411,
-411,
-411,
-411,
-411,
-411,
-411,
-411,
-411,
-411,
-411,
-411,
-411,
-411,
-411,
-411,
-411,
-411,
-411,
-411,
-411,
-411,
-411,
-411,
-411,
-411,
-411,
-411,
-411,
-411,
-411,
-411,
-411,
-411,
-411,
-321,
-231,
-231,
-231,
-231,
-231,
-231,
-231,
-231,
-231,
-231,
-231,
-231,
-231,
-231,
-231,
-231,
-231,
-231,
-231,
-231,
-231,
-231,
-231,
-231,
-231,
-231,
-231,
-231,
-231,
-231,
-231,
-231,
-231,
-231,
-231,
-231,
-231,
-231,
-231,
-231,
-231,
-231,
-231,
-231,
-231,
-231,
-231,
-231,
-231,
-231,
-122,
-14,
-14,
-14,
-14,
-14,
-14,
-14,
-14,
-14,
-14,
-14,
-14,
-14,
-14,
-14,
-14,
-14,
-14,
-14,
-14,
-14,
-14,
-14,
-14,
-14,
-14,
-14,
-14,
-14,
-14,
-14,
-14,
-14,
-14,
-14,
-14,
-14,
-14,
-14,
-14,
-14,
-14,
-14,
-14,
-14,
-14,
-14,
-14,
-14,
-14,
117,
248,
248,
248,
248,
248,
248,
248,
248,
248,
248,
248,
248,
248,
248,
248,
248,
248,
248,
248,
248,
248,
248,
248,
248,
248,
248,
248,
248,
248,
248,
248,
248,
248,
248,
248,
248,
248,
248,
248,
248,
248,
248,
248,
248,
248,
248,
248,
248,
248,
248,
263,
279,
279,
279,
279,
279,
279,
279,
279,
279,
279,
279,
279,
279,
279,
279,
279,
279,
279,
279,
279,
279,
279,
279,
279,
279,
279,
279,
279,
279,
279,
279,
279,
279,
279,
279,
279,
279,
279,
279,
279,
279,
279,
279,
279,
279,
279,
279,
279,
279,
279,
279};
