const float fc2_bias_lut[128] = {-0.4079,
-0.4025,
-0.3971,
-0.3918,
-0.3864,
-0.3810,
-0.3756,
-0.3702,
-0.3648,
-0.3594,
-0.3541,
-0.3487,
-0.3433,
-0.3379,
-0.3325,
-0.3271,
-0.3218,
-0.3164,
-0.3110,
-0.3056,
-0.3002,
-0.2948,
-0.2895,
-0.2841,
-0.2787,
-0.2733,
-0.2679,
-0.2625,
-0.2571,
-0.2518,
-0.2464,
-0.2410,
-0.2356,
-0.2302,
-0.2248,
-0.2195,
-0.2141,
-0.2087,
-0.2033,
-0.1979,
-0.1925,
-0.1871,
-0.1818,
-0.1764,
-0.1710,
-0.1656,
-0.1602,
-0.1548,
-0.1495,
-0.1441,
-0.1387,
-0.1333,
-0.1279,
-0.1225,
-0.1172,
-0.1118,
-0.1064,
-0.1010,
-0.0956,
-0.0902,
-0.0848,
-0.0795,
-0.0741,
-0.0687,
-0.0633,
-0.0579,
-0.0525,
-0.0472,
-0.0418,
-0.0364,
-0.0310,
-0.0256,
-0.0202,
-0.0148,
-0.0095,
-0.0041,
0.0013,
0.0067,
0.0121,
0.0175,
0.0228,
0.0282,
0.0336,
0.0390,
0.0444,
0.0498,
0.0551,
0.0605,
0.0659,
0.0713,
0.0767,
0.0821,
0.0875,
0.0928,
0.0982,
0.1036,
0.1090,
0.1144,
0.1198,
0.1251,
0.1305,
0.1359,
0.1413,
0.1467,
0.1521,
0.1575,
0.1628,
0.1682,
0.1736,
0.1790,
0.1844,
0.1898,
0.1951,
0.2005,
0.2059,
0.2113,
0.2167,
0.2221,
0.2274,
0.2328,
0.2382,
0.2436,
0.2490,
0.2544,
0.2598,
0.2651,
0.2705,
0.2759};
