const float fc1_weights_lut[128] = {-0.2245,
-0.2215,
-0.2184,
-0.2153,
-0.2122,
-0.2092,
-0.2061,
-0.2030,
-0.2000,
-0.1969,
-0.1938,
-0.1907,
-0.1877,
-0.1846,
-0.1815,
-0.1784,
-0.1754,
-0.1723,
-0.1692,
-0.1661,
-0.1631,
-0.1600,
-0.1569,
-0.1538,
-0.1508,
-0.1477,
-0.1446,
-0.1416,
-0.1385,
-0.1354,
-0.1323,
-0.1293,
-0.1262,
-0.1231,
-0.1200,
-0.1170,
-0.1139,
-0.1108,
-0.1077,
-0.1047,
-0.1016,
-0.0985,
-0.0954,
-0.0924,
-0.0893,
-0.0862,
-0.0832,
-0.0801,
-0.0770,
-0.0739,
-0.0709,
-0.0678,
-0.0647,
-0.0616,
-0.0586,
-0.0555,
-0.0524,
-0.0493,
-0.0463,
-0.0432,
-0.0401,
-0.0370,
-0.0340,
-0.0309,
-0.0278,
-0.0248,
-0.0217,
-0.0186,
-0.0155,
-0.0125,
-0.0094,
-0.0063,
-0.0032,
-0.0002,
0.0029,
0.0060,
0.0091,
0.0121,
0.0152,
0.0183,
0.0214,
0.0244,
0.0275,
0.0306,
0.0336,
0.0367,
0.0398,
0.0429,
0.0459,
0.0490,
0.0521,
0.0552,
0.0582,
0.0613,
0.0644,
0.0675,
0.0705,
0.0736,
0.0767,
0.0798,
0.0828,
0.0859,
0.0890,
0.0920,
0.0951,
0.0982,
0.1013,
0.1043,
0.1074,
0.1105,
0.1136,
0.1166,
0.1197,
0.1228,
0.1259,
0.1289,
0.1320,
0.1351,
0.1382,
0.1412,
0.1443,
0.1474,
0.1504,
0.1535,
0.1566,
0.1597,
0.1627,
0.1658};
