const float fc2_weights_lut[256] = {-0.3901,
-0.3798,
-0.3664,
-0.3585,
-0.3548,
-0.3473,
-0.3399,
-0.3328,
-0.3266,
-0.3174,
-0.3084,
-0.3017,
-0.2955,
-0.2926,
-0.2892,
-0.2845,
-0.2813,
-0.2782,
-0.2736,
-0.2697,
-0.2660,
-0.2597,
-0.2548,
-0.2533,
-0.2502,
-0.2473,
-0.2451,
-0.2416,
-0.2391,
-0.2382,
-0.2370,
-0.2324,
-0.2276,
-0.2254,
-0.2234,
-0.2205,
-0.2166,
-0.2143,
-0.2124,
-0.2104,
-0.2083,
-0.2061,
-0.2054,
-0.2035,
-0.2009,
-0.1981,
-0.1960,
-0.1948,
-0.1935,
-0.1913,
-0.1886,
-0.1870,
-0.1844,
-0.1818,
-0.1792,
-0.1753,
-0.1728,
-0.1711,
-0.1695,
-0.1685,
-0.1675,
-0.1652,
-0.1622,
-0.1604,
-0.1593,
-0.1584,
-0.1570,
-0.1540,
-0.1508,
-0.1479,
-0.1445,
-0.1429,
-0.1423,
-0.1400,
-0.1352,
-0.1304,
-0.1267,
-0.1241,
-0.1219,
-0.1189,
-0.1124,
-0.1068,
-0.1052,
-0.1029,
-0.1015,
-0.1007,
-0.0992,
-0.0948,
-0.0903,
-0.0881,
-0.0857,
-0.0828,
-0.0811,
-0.0800,
-0.0769,
-0.0715,
-0.0681,
-0.0662,
-0.0640,
-0.0592,
-0.0535,
-0.0493,
-0.0456,
-0.0430,
-0.0405,
-0.0388,
-0.0373,
-0.0340,
-0.0293,
-0.0264,
-0.0243,
-0.0211,
-0.0185,
-0.0121,
-0.0043,
-0.0007,
0.0030,
0.0070,
0.0101,
0.0124,
0.0176,
0.0241,
0.0273,
0.0321,
0.0368,
0.0410,
0.0456,
0.0487,
0.0508,
0.0549,
0.0602,
0.0627,
0.0647,
0.0674,
0.0699,
0.0717,
0.0737,
0.0757,
0.0779,
0.0793,
0.0802,
0.0820,
0.0851,
0.0879,
0.0893,
0.0905,
0.0921,
0.0947,
0.0968,
0.0979,
0.0993,
0.1003,
0.1008,
0.1016,
0.1027,
0.1042,
0.1061,
0.1082,
0.1098,
0.1104,
0.1112,
0.1128,
0.1151,
0.1177,
0.1196,
0.1201,
0.1208,
0.1222,
0.1239,
0.1254,
0.1261,
0.1265,
0.1271,
0.1282,
0.1293,
0.1305,
0.1317,
0.1331,
0.1347,
0.1354,
0.1360,
0.1366,
0.1371,
0.1373,
0.1377,
0.1383,
0.1388,
0.1399,
0.1415,
0.1428,
0.1438,
0.1450,
0.1460,
0.1472,
0.1483,
0.1487,
0.1493,
0.1503,
0.1516,
0.1527,
0.1537,
0.1546,
0.1559,
0.1578,
0.1598,
0.1626,
0.1647,
0.1657,
0.1665,
0.1673,
0.1692,
0.1713,
0.1722,
0.1733,
0.1747,
0.1759,
0.1768,
0.1784,
0.1804,
0.1816,
0.1833,
0.1850,
0.1861,
0.1872,
0.1894,
0.1917,
0.1929,
0.1945,
0.1963,
0.1971,
0.1982,
0.2001,
0.2018,
0.2042,
0.2072,
0.2093,
0.2107,
0.2125,
0.2157,
0.2205,
0.2246,
0.2300,
0.2354,
0.2381,
0.2399,
0.2459,
0.2540,
0.2589,
0.2633,
0.2674,
0.2739,
0.2949,
0.3184,
0.3358,
0.3476,
0.3532};
