const float fc2_bias_lut[256] = {-0.4093,
-0.4066,
-0.4039,
-0.4012,
-0.3985,
-0.3958,
-0.3931,
-0.3904,
-0.3877,
-0.3850,
-0.3823,
-0.3796,
-0.3769,
-0.3743,
-0.3716,
-0.3689,
-0.3662,
-0.3635,
-0.3608,
-0.3581,
-0.3554,
-0.3527,
-0.3500,
-0.3473,
-0.3446,
-0.3419,
-0.3393,
-0.3366,
-0.3339,
-0.3312,
-0.3285,
-0.3258,
-0.3231,
-0.3204,
-0.3177,
-0.3150,
-0.3123,
-0.3096,
-0.3070,
-0.3043,
-0.3016,
-0.2989,
-0.2962,
-0.2935,
-0.2908,
-0.2881,
-0.2854,
-0.2827,
-0.2800,
-0.2773,
-0.2746,
-0.2720,
-0.2693,
-0.2666,
-0.2639,
-0.2612,
-0.2585,
-0.2558,
-0.2531,
-0.2504,
-0.2477,
-0.2450,
-0.2423,
-0.2396,
-0.2370,
-0.2343,
-0.2316,
-0.2289,
-0.2262,
-0.2235,
-0.2208,
-0.2181,
-0.2154,
-0.2127,
-0.2100,
-0.2073,
-0.2046,
-0.2020,
-0.1993,
-0.1966,
-0.1939,
-0.1912,
-0.1885,
-0.1858,
-0.1831,
-0.1804,
-0.1777,
-0.1750,
-0.1723,
-0.1696,
-0.1670,
-0.1643,
-0.1616,
-0.1589,
-0.1562,
-0.1535,
-0.1508,
-0.1481,
-0.1454,
-0.1427,
-0.1400,
-0.1373,
-0.1347,
-0.1320,
-0.1293,
-0.1266,
-0.1239,
-0.1212,
-0.1185,
-0.1158,
-0.1131,
-0.1104,
-0.1077,
-0.1050,
-0.1023,
-0.0997,
-0.0970,
-0.0943,
-0.0916,
-0.0889,
-0.0862,
-0.0835,
-0.0808,
-0.0781,
-0.0754,
-0.0727,
-0.0700,
-0.0673,
-0.0647,
-0.0620,
-0.0593,
-0.0566,
-0.0539,
-0.0512,
-0.0485,
-0.0458,
-0.0431,
-0.0404,
-0.0377,
-0.0350,
-0.0323,
-0.0297,
-0.0270,
-0.0243,
-0.0216,
-0.0189,
-0.0162,
-0.0135,
-0.0108,
-0.0081,
-0.0054,
-0.0027,
-0.0000,
0.0027,
0.0053,
0.0080,
0.0107,
0.0134,
0.0161,
0.0188,
0.0215,
0.0242,
0.0269,
0.0296,
0.0323,
0.0350,
0.0376,
0.0403,
0.0430,
0.0457,
0.0484,
0.0511,
0.0538,
0.0565,
0.0592,
0.0619,
0.0646,
0.0673,
0.0700,
0.0726,
0.0753,
0.0780,
0.0807,
0.0834,
0.0861,
0.0888,
0.0915,
0.0942,
0.0969,
0.0996,
0.1023,
0.1050,
0.1076,
0.1103,
0.1130,
0.1157,
0.1184,
0.1211,
0.1238,
0.1265,
0.1292,
0.1319,
0.1346,
0.1373,
0.1400,
0.1426,
0.1453,
0.1480,
0.1507,
0.1534,
0.1561,
0.1588,
0.1615,
0.1642,
0.1669,
0.1696,
0.1723,
0.1750,
0.1776,
0.1803,
0.1830,
0.1857,
0.1884,
0.1911,
0.1938,
0.1965,
0.1992,
0.2019,
0.2046,
0.2073,
0.2099,
0.2126,
0.2153,
0.2180,
0.2207,
0.2234,
0.2261,
0.2288,
0.2315,
0.2342,
0.2369,
0.2396,
0.2423,
0.2449,
0.2476,
0.2503,
0.2530,
0.2557,
0.2584,
0.2611,
0.2638,
0.2665,
0.2692,
0.2719,
0.2746,
0.2773};
