const float fc1_bias_lut[256] = {-0.0380,
-0.0372,
-0.0364,
-0.0343,
-0.0322,
-0.0320,
-0.0319,
-0.0309,
-0.0299,
-0.0297,
-0.0295,
-0.0294,
-0.0293,
-0.0288,
-0.0283,
-0.0279,
-0.0275,
-0.0274,
-0.0274,
-0.0273,
-0.0273,
-0.0263,
-0.0253,
-0.0243,
-0.0233,
-0.0231,
-0.0228,
-0.0226,
-0.0223,
-0.0222,
-0.0220,
-0.0218,
-0.0216,
-0.0214,
-0.0212,
-0.0212,
-0.0211,
-0.0210,
-0.0209,
-0.0206,
-0.0202,
-0.0183,
-0.0164,
-0.0163,
-0.0162,
-0.0161,
-0.0160,
-0.0159,
-0.0158,
-0.0156,
-0.0154,
-0.0153,
-0.0152,
-0.0149,
-0.0146,
-0.0144,
-0.0142,
-0.0141,
-0.0140,
-0.0140,
-0.0139,
-0.0139,
-0.0138,
-0.0135,
-0.0132,
-0.0131,
-0.0130,
-0.0129,
-0.0128,
-0.0127,
-0.0126,
-0.0119,
-0.0111,
-0.0110,
-0.0110,
-0.0107,
-0.0104,
-0.0104,
-0.0103,
-0.0101,
-0.0098,
-0.0098,
-0.0098,
-0.0096,
-0.0094,
-0.0094,
-0.0093,
-0.0091,
-0.0090,
-0.0090,
-0.0090,
-0.0090,
-0.0090,
-0.0089,
-0.0089,
-0.0088,
-0.0088,
-0.0087,
-0.0086,
-0.0086,
-0.0086,
-0.0085,
-0.0083,
-0.0078,
-0.0073,
-0.0071,
-0.0070,
-0.0067,
-0.0065,
-0.0063,
-0.0061,
-0.0060,
-0.0060,
-0.0055,
-0.0050,
-0.0048,
-0.0046,
-0.0043,
-0.0040,
-0.0037,
-0.0033,
-0.0033,
-0.0033,
-0.0033,
-0.0033,
-0.0032,
-0.0031,
-0.0031,
-0.0030,
-0.0030,
-0.0030,
-0.0029,
-0.0029,
-0.0027,
-0.0025,
-0.0023,
-0.0022,
-0.0020,
-0.0019,
-0.0014,
-0.0010,
-0.0009,
-0.0009,
-0.0009,
-0.0008,
-0.0007,
-0.0006,
-0.0006,
-0.0006,
-0.0004,
-0.0002,
0.0002,
0.0005,
0.0006,
0.0006,
0.0007,
0.0007,
0.0013,
0.0020,
0.0024,
0.0028,
0.0028,
0.0029,
0.0031,
0.0033,
0.0034,
0.0035,
0.0039,
0.0042,
0.0042,
0.0043,
0.0046,
0.0049,
0.0051,
0.0052,
0.0055,
0.0058,
0.0061,
0.0064,
0.0065,
0.0066,
0.0068,
0.0070,
0.0071,
0.0072,
0.0075,
0.0079,
0.0079,
0.0080,
0.0080,
0.0080,
0.0082,
0.0083,
0.0083,
0.0084,
0.0087,
0.0090,
0.0090,
0.0091,
0.0094,
0.0097,
0.0098,
0.0100,
0.0101,
0.0102,
0.0105,
0.0107,
0.0108,
0.0109,
0.0111,
0.0113,
0.0113,
0.0113,
0.0118,
0.0122,
0.0126,
0.0130,
0.0132,
0.0134,
0.0141,
0.0148,
0.0149,
0.0149,
0.0150,
0.0151,
0.0157,
0.0163,
0.0176,
0.0189,
0.0200,
0.0210,
0.0217,
0.0224,
0.0230,
0.0236,
0.0251,
0.0266,
0.0267,
0.0269,
0.0275,
0.0282,
0.0288,
0.0294,
0.0301,
0.0309,
0.0310,
0.0311,
0.0318,
0.0325,
0.0327,
0.0328,
0.0348,
0.0368,
0.8065,
1.5762,
1.5762};
