const float conv3_bias_lut[256] = {-0.1154,
-0.1154,
-0.1154,
-0.1048,
-0.0943,
-0.0943,
-0.0943,
-0.0905,
-0.0866,
-0.0866,
-0.0866,
-0.0859,
-0.0852,
-0.0852,
-0.0852,
-0.0784,
-0.0716,
-0.0716,
-0.0716,
-0.0686,
-0.0656,
-0.0656,
-0.0656,
-0.0655,
-0.0654,
-0.0654,
-0.0654,
-0.0641,
-0.0629,
-0.0629,
-0.0629,
-0.0626,
-0.0623,
-0.0623,
-0.0623,
-0.0617,
-0.0611,
-0.0611,
-0.0611,
-0.0597,
-0.0584,
-0.0584,
-0.0584,
-0.0553,
-0.0522,
-0.0522,
-0.0522,
-0.0484,
-0.0445,
-0.0445,
-0.0445,
-0.0441,
-0.0437,
-0.0437,
-0.0437,
-0.0436,
-0.0434,
-0.0434,
-0.0434,
-0.0427,
-0.0419,
-0.0419,
-0.0419,
-0.0382,
-0.0346,
-0.0346,
-0.0346,
-0.0346,
-0.0346,
-0.0346,
-0.0346,
-0.0343,
-0.0339,
-0.0339,
-0.0339,
-0.0303,
-0.0267,
-0.0267,
-0.0267,
-0.0267,
-0.0266,
-0.0266,
-0.0266,
-0.0266,
-0.0266,
-0.0266,
-0.0266,
-0.0263,
-0.0261,
-0.0261,
-0.0261,
-0.0260,
-0.0259,
-0.0259,
-0.0259,
-0.0250,
-0.0241,
-0.0241,
-0.0241,
-0.0226,
-0.0212,
-0.0212,
-0.0212,
-0.0197,
-0.0182,
-0.0182,
-0.0182,
-0.0135,
-0.0088,
-0.0088,
-0.0088,
-0.0088,
-0.0088,
-0.0088,
-0.0088,
-0.0080,
-0.0072,
-0.0072,
-0.0072,
-0.0062,
-0.0051,
-0.0051,
-0.0051,
-0.0049,
-0.0046,
-0.0046,
-0.0046,
-0.0029,
-0.0012,
-0.0012,
-0.0012,
0.0013,
0.0038,
0.0038,
0.0038,
0.0058,
0.0078,
0.0078,
0.0078,
0.0080,
0.0082,
0.0082,
0.0082,
0.0094,
0.0105,
0.0105,
0.0105,
0.0106,
0.0107,
0.0107,
0.0107,
0.0129,
0.0150,
0.0150,
0.0150,
0.0158,
0.0165,
0.0165,
0.0165,
0.0173,
0.0181,
0.0181,
0.0181,
0.0213,
0.0245,
0.0245,
0.0245,
0.0247,
0.0249,
0.0249,
0.0249,
0.0276,
0.0303,
0.0303,
0.0303,
0.0320,
0.0338,
0.0338,
0.0338,
0.0346,
0.0354,
0.0354,
0.0354,
0.0357,
0.0359,
0.0359,
0.0359,
0.0370,
0.0381,
0.0381,
0.0381,
0.0387,
0.0394,
0.0394,
0.0394,
0.0401,
0.0408,
0.0408,
0.0408,
0.0432,
0.0455,
0.0455,
0.0455,
0.0456,
0.0456,
0.0456,
0.0456,
0.0456,
0.0457,
0.0457,
0.0457,
0.0485,
0.0512,
0.0512,
0.0512,
0.0517,
0.0522,
0.0522,
0.0522,
0.0563,
0.0604,
0.0604,
0.0604,
0.0604,
0.0604,
0.0604,
0.0604,
0.0650,
0.0696,
0.0696,
0.0696,
0.0709,
0.0722,
0.0722,
0.0722,
0.0736,
0.0749,
0.0749,
0.0749,
0.0832,
0.0914,
0.0914,
0.0914,
0.1001,
0.1089,
0.1089,
0.1089,
0.1171,
0.1253,
0.1253,
0.1253,
0.1384,
0.1514,
0.1514,
0.1514,
0.1514};
