const float conv3_weights_lut[256] = {-0.1464,
-0.1078,
-0.0988,
-0.0933,
-0.0893,
-0.0859,
-0.0829,
-0.0803,
-0.0783,
-0.0765,
-0.0748,
-0.0730,
-0.0712,
-0.0695,
-0.0682,
-0.0668,
-0.0654,
-0.0641,
-0.0630,
-0.0620,
-0.0609,
-0.0597,
-0.0588,
-0.0579,
-0.0570,
-0.0560,
-0.0551,
-0.0542,
-0.0534,
-0.0526,
-0.0517,
-0.0509,
-0.0502,
-0.0495,
-0.0487,
-0.0479,
-0.0471,
-0.0465,
-0.0458,
-0.0450,
-0.0444,
-0.0438,
-0.0432,
-0.0426,
-0.0419,
-0.0412,
-0.0405,
-0.0398,
-0.0392,
-0.0386,
-0.0379,
-0.0373,
-0.0368,
-0.0362,
-0.0357,
-0.0351,
-0.0345,
-0.0340,
-0.0335,
-0.0330,
-0.0324,
-0.0318,
-0.0313,
-0.0307,
-0.0302,
-0.0297,
-0.0291,
-0.0286,
-0.0280,
-0.0275,
-0.0270,
-0.0264,
-0.0259,
-0.0254,
-0.0248,
-0.0243,
-0.0239,
-0.0234,
-0.0229,
-0.0224,
-0.0219,
-0.0214,
-0.0209,
-0.0204,
-0.0198,
-0.0193,
-0.0188,
-0.0183,
-0.0179,
-0.0174,
-0.0170,
-0.0165,
-0.0160,
-0.0155,
-0.0150,
-0.0146,
-0.0140,
-0.0136,
-0.0131,
-0.0127,
-0.0122,
-0.0118,
-0.0113,
-0.0108,
-0.0104,
-0.0100,
-0.0095,
-0.0090,
-0.0085,
-0.0081,
-0.0076,
-0.0072,
-0.0066,
-0.0062,
-0.0057,
-0.0053,
-0.0049,
-0.0045,
-0.0041,
-0.0036,
-0.0032,
-0.0027,
-0.0022,
-0.0017,
-0.0014,
-0.0010,
-0.0006,
-0.0001,
0.0003,
0.0007,
0.0011,
0.0015,
0.0019,
0.0023,
0.0028,
0.0033,
0.0037,
0.0041,
0.0045,
0.0049,
0.0053,
0.0057,
0.0062,
0.0066,
0.0070,
0.0074,
0.0078,
0.0082,
0.0086,
0.0091,
0.0095,
0.0100,
0.0104,
0.0108,
0.0112,
0.0116,
0.0120,
0.0124,
0.0129,
0.0133,
0.0137,
0.0141,
0.0146,
0.0151,
0.0155,
0.0161,
0.0165,
0.0169,
0.0174,
0.0178,
0.0183,
0.0188,
0.0192,
0.0196,
0.0201,
0.0206,
0.0211,
0.0215,
0.0220,
0.0225,
0.0230,
0.0236,
0.0240,
0.0244,
0.0249,
0.0253,
0.0258,
0.0262,
0.0267,
0.0272,
0.0277,
0.0282,
0.0288,
0.0293,
0.0298,
0.0303,
0.0309,
0.0314,
0.0319,
0.0324,
0.0330,
0.0335,
0.0340,
0.0346,
0.0351,
0.0357,
0.0362,
0.0368,
0.0373,
0.0378,
0.0384,
0.0390,
0.0397,
0.0403,
0.0408,
0.0414,
0.0420,
0.0426,
0.0432,
0.0439,
0.0446,
0.0452,
0.0459,
0.0466,
0.0473,
0.0481,
0.0488,
0.0496,
0.0504,
0.0512,
0.0519,
0.0528,
0.0537,
0.0546,
0.0554,
0.0563,
0.0574,
0.0586,
0.0597,
0.0607,
0.0618,
0.0631,
0.0645,
0.0659,
0.0673,
0.0689,
0.0706,
0.0724,
0.0744,
0.0766,
0.0793,
0.0827,
0.0864,
0.0917,
0.0999,
0.1289};
