const float conv6_bias_lut[256] = {-0.1956,
-0.1956,
-0.1956,
-0.1788,
-0.1620,
-0.1620,
-0.1620,
-0.1343,
-0.1065,
-0.1065,
-0.1065,
-0.1030,
-0.0995,
-0.0995,
-0.0995,
-0.0990,
-0.0986,
-0.0986,
-0.0986,
-0.0969,
-0.0952,
-0.0952,
-0.0952,
-0.0945,
-0.0939,
-0.0939,
-0.0939,
-0.0916,
-0.0894,
-0.0894,
-0.0894,
-0.0888,
-0.0883,
-0.0883,
-0.0883,
-0.0881,
-0.0879,
-0.0879,
-0.0879,
-0.0870,
-0.0861,
-0.0861,
-0.0861,
-0.0859,
-0.0858,
-0.0858,
-0.0858,
-0.0857,
-0.0857,
-0.0857,
-0.0857,
-0.0802,
-0.0747,
-0.0747,
-0.0747,
-0.0744,
-0.0741,
-0.0741,
-0.0741,
-0.0729,
-0.0717,
-0.0717,
-0.0717,
-0.0653,
-0.0588,
-0.0588,
-0.0588,
-0.0568,
-0.0548,
-0.0548,
-0.0548,
-0.0527,
-0.0506,
-0.0506,
-0.0506,
-0.0466,
-0.0426,
-0.0426,
-0.0426,
-0.0418,
-0.0410,
-0.0410,
-0.0410,
-0.0404,
-0.0399,
-0.0399,
-0.0399,
-0.0381,
-0.0362,
-0.0362,
-0.0362,
-0.0340,
-0.0319,
-0.0319,
-0.0319,
-0.0299,
-0.0279,
-0.0279,
-0.0279,
-0.0278,
-0.0276,
-0.0276,
-0.0276,
-0.0249,
-0.0221,
-0.0221,
-0.0221,
-0.0218,
-0.0215,
-0.0215,
-0.0215,
-0.0187,
-0.0159,
-0.0159,
-0.0159,
-0.0156,
-0.0152,
-0.0152,
-0.0152,
-0.0142,
-0.0132,
-0.0132,
-0.0132,
-0.0129,
-0.0126,
-0.0126,
-0.0126,
-0.0121,
-0.0116,
-0.0116,
-0.0116,
-0.0109,
-0.0103,
-0.0103,
-0.0103,
-0.0097,
-0.0091,
-0.0091,
-0.0091,
-0.0057,
-0.0023,
-0.0023,
-0.0023,
-0.0017,
-0.0012,
-0.0012,
-0.0012,
0.0011,
0.0033,
0.0033,
0.0033,
0.0054,
0.0075,
0.0075,
0.0075,
0.0100,
0.0124,
0.0124,
0.0124,
0.0124,
0.0125,
0.0125,
0.0125,
0.0126,
0.0126,
0.0126,
0.0126,
0.0130,
0.0134,
0.0134,
0.0134,
0.0153,
0.0172,
0.0172,
0.0172,
0.0185,
0.0197,
0.0197,
0.0197,
0.0214,
0.0231,
0.0231,
0.0231,
0.0232,
0.0234,
0.0234,
0.0234,
0.0235,
0.0236,
0.0236,
0.0236,
0.0256,
0.0276,
0.0276,
0.0276,
0.0315,
0.0354,
0.0354,
0.0354,
0.0365,
0.0376,
0.0376,
0.0376,
0.0418,
0.0461,
0.0461,
0.0461,
0.0500,
0.0538,
0.0538,
0.0538,
0.0583,
0.0628,
0.0628,
0.0628,
0.0643,
0.0658,
0.0658,
0.0658,
0.0678,
0.0698,
0.0698,
0.0698,
0.0738,
0.0778,
0.0778,
0.0778,
0.0786,
0.0794,
0.0794,
0.0794,
0.0817,
0.0841,
0.0841,
0.0841,
0.0903,
0.0966,
0.0966,
0.0966,
0.1000,
0.1034,
0.1034,
0.1034,
0.1227,
0.1421,
0.1421,
0.1421,
0.1474,
0.1527,
0.1527,
0.1527,
0.1634,
0.1742,
0.1742,
0.1742,
0.1742};
