const float conv3_weights_lut[128] = {-0.1780,
-0.1754,
-0.1728,
-0.1702,
-0.1676,
-0.1650,
-0.1624,
-0.1598,
-0.1573,
-0.1547,
-0.1521,
-0.1495,
-0.1469,
-0.1443,
-0.1417,
-0.1391,
-0.1365,
-0.1339,
-0.1313,
-0.1287,
-0.1261,
-0.1235,
-0.1209,
-0.1183,
-0.1157,
-0.1131,
-0.1105,
-0.1079,
-0.1053,
-0.1027,
-0.1001,
-0.0975,
-0.0949,
-0.0923,
-0.0897,
-0.0871,
-0.0845,
-0.0819,
-0.0793,
-0.0767,
-0.0741,
-0.0715,
-0.0689,
-0.0663,
-0.0637,
-0.0611,
-0.0585,
-0.0559,
-0.0533,
-0.0507,
-0.0482,
-0.0456,
-0.0430,
-0.0404,
-0.0378,
-0.0352,
-0.0326,
-0.0300,
-0.0274,
-0.0248,
-0.0222,
-0.0196,
-0.0170,
-0.0144,
-0.0118,
-0.0092,
-0.0066,
-0.0040,
-0.0014,
0.0012,
0.0038,
0.0064,
0.0090,
0.0116,
0.0142,
0.0168,
0.0194,
0.0220,
0.0246,
0.0272,
0.0298,
0.0324,
0.0350,
0.0376,
0.0402,
0.0428,
0.0454,
0.0480,
0.0506,
0.0532,
0.0558,
0.0583,
0.0609,
0.0635,
0.0661,
0.0687,
0.0713,
0.0739,
0.0765,
0.0791,
0.0817,
0.0843,
0.0869,
0.0895,
0.0921,
0.0947,
0.0973,
0.0999,
0.1025,
0.1051,
0.1077,
0.1103,
0.1129,
0.1155,
0.1181,
0.1207,
0.1233,
0.1259,
0.1285,
0.1311,
0.1337,
0.1363,
0.1389,
0.1415,
0.1441,
0.1467,
0.1493,
0.1519};
