const float fc2_weights_lut[128] = {-0.3915,
-0.3856,
-0.3797,
-0.3738,
-0.3680,
-0.3621,
-0.3562,
-0.3503,
-0.3445,
-0.3386,
-0.3327,
-0.3268,
-0.3210,
-0.3151,
-0.3092,
-0.3033,
-0.2975,
-0.2916,
-0.2857,
-0.2798,
-0.2739,
-0.2681,
-0.2622,
-0.2563,
-0.2504,
-0.2446,
-0.2387,
-0.2328,
-0.2269,
-0.2211,
-0.2152,
-0.2093,
-0.2034,
-0.1976,
-0.1917,
-0.1858,
-0.1799,
-0.1741,
-0.1682,
-0.1623,
-0.1564,
-0.1505,
-0.1447,
-0.1388,
-0.1329,
-0.1270,
-0.1212,
-0.1153,
-0.1094,
-0.1035,
-0.0977,
-0.0918,
-0.0859,
-0.0800,
-0.0742,
-0.0683,
-0.0624,
-0.0565,
-0.0507,
-0.0448,
-0.0389,
-0.0330,
-0.0271,
-0.0213,
-0.0154,
-0.0095,
-0.0036,
0.0022,
0.0081,
0.0140,
0.0199,
0.0257,
0.0316,
0.0375,
0.0434,
0.0492,
0.0551,
0.0610,
0.0669,
0.0727,
0.0786,
0.0845,
0.0904,
0.0963,
0.1021,
0.1080,
0.1139,
0.1198,
0.1256,
0.1315,
0.1374,
0.1433,
0.1491,
0.1550,
0.1609,
0.1668,
0.1726,
0.1785,
0.1844,
0.1903,
0.1961,
0.2020,
0.2079,
0.2138,
0.2196,
0.2255,
0.2314,
0.2373,
0.2432,
0.2490,
0.2549,
0.2608,
0.2667,
0.2725,
0.2784,
0.2843,
0.2902,
0.2960,
0.3019,
0.3078,
0.3137,
0.3195,
0.3254,
0.3313,
0.3372,
0.3430,
0.3489,
0.3548};
