const float conv0_bias_lut[256] = {-0.4066,
-0.4066,
-0.4066,
-0.3907,
-0.3748,
-0.3748,
-0.3748,
-0.3420,
-0.3092,
-0.3092,
-0.3092,
-0.2988,
-0.2884,
-0.2884,
-0.2884,
-0.2869,
-0.2854,
-0.2854,
-0.2854,
-0.2839,
-0.2825,
-0.2825,
-0.2825,
-0.2788,
-0.2752,
-0.2752,
-0.2752,
-0.2649,
-0.2545,
-0.2545,
-0.2545,
-0.2496,
-0.2448,
-0.2448,
-0.2448,
-0.2439,
-0.2429,
-0.2429,
-0.2429,
-0.2424,
-0.2420,
-0.2420,
-0.2420,
-0.2397,
-0.2374,
-0.2374,
-0.2374,
-0.2333,
-0.2292,
-0.2292,
-0.2292,
-0.2279,
-0.2266,
-0.2266,
-0.2266,
-0.2262,
-0.2257,
-0.2257,
-0.2257,
-0.2133,
-0.2009,
-0.2009,
-0.2009,
-0.1978,
-0.1948,
-0.1948,
-0.1948,
-0.1931,
-0.1915,
-0.1915,
-0.1915,
-0.1876,
-0.1837,
-0.1837,
-0.1837,
-0.1834,
-0.1831,
-0.1831,
-0.1831,
-0.1806,
-0.1781,
-0.1781,
-0.1781,
-0.1630,
-0.1479,
-0.1479,
-0.1479,
-0.1459,
-0.1439,
-0.1439,
-0.1439,
-0.1338,
-0.1236,
-0.1236,
-0.1236,
-0.1202,
-0.1169,
-0.1169,
-0.1169,
-0.1131,
-0.1093,
-0.1093,
-0.1093,
-0.1081,
-0.1069,
-0.1069,
-0.1069,
-0.1021,
-0.0974,
-0.0974,
-0.0974,
-0.0912,
-0.0851,
-0.0851,
-0.0851,
-0.0805,
-0.0759,
-0.0759,
-0.0759,
-0.0755,
-0.0751,
-0.0751,
-0.0751,
-0.0737,
-0.0723,
-0.0723,
-0.0723,
-0.0572,
-0.0421,
-0.0421,
-0.0421,
-0.0418,
-0.0416,
-0.0416,
-0.0416,
-0.0415,
-0.0414,
-0.0414,
-0.0414,
-0.0400,
-0.0386,
-0.0386,
-0.0386,
-0.0331,
-0.0275,
-0.0275,
-0.0275,
-0.0158,
-0.0040,
-0.0040,
-0.0040,
0.0009,
0.0059,
0.0059,
0.0059,
0.0086,
0.0113,
0.0113,
0.0113,
0.0123,
0.0133,
0.0133,
0.0133,
0.0168,
0.0202,
0.0202,
0.0202,
0.0208,
0.0214,
0.0214,
0.0214,
0.0380,
0.0546,
0.0546,
0.0546,
0.0553,
0.0559,
0.0559,
0.0559,
0.0643,
0.0726,
0.0726,
0.0726,
0.0731,
0.0735,
0.0735,
0.0735,
0.0816,
0.0897,
0.0897,
0.0897,
0.0923,
0.0949,
0.0949,
0.0949,
0.1100,
0.1251,
0.1251,
0.1251,
0.1318,
0.1386,
0.1386,
0.1386,
0.1416,
0.1445,
0.1445,
0.1445,
0.1696,
0.1947,
0.1947,
0.1947,
0.2018,
0.2089,
0.2089,
0.2089,
0.2173,
0.2257,
0.2257,
0.2257,
0.2352,
0.2447,
0.2447,
0.2447,
0.2495,
0.2542,
0.2542,
0.2542,
0.2583,
0.2625,
0.2625,
0.2625,
0.2648,
0.2670,
0.2670,
0.2670,
0.2712,
0.2754,
0.2754,
0.2754,
0.2842,
0.2930,
0.2930,
0.2930,
0.2954,
0.2977,
0.2977,
0.2977,
0.3212,
0.3447,
0.3447,
0.3447,
0.3674,
0.3901,
0.3901,
0.3901,
0.3901};
