const float conv0_weights_lut[256] = {-0.6015,
-0.5852,
-0.5773,
-0.5631,
-0.5494,
-0.5445,
-0.5420,
-0.5393,
-0.5371,
-0.5326,
-0.5281,
-0.5209,
-0.5128,
-0.5106,
-0.5095,
-0.5075,
-0.5055,
-0.5021,
-0.4970,
-0.4907,
-0.4861,
-0.4825,
-0.4799,
-0.4775,
-0.4735,
-0.4717,
-0.4587,
-0.4439,
-0.4405,
-0.4382,
-0.4373,
-0.4356,
-0.4326,
-0.4304,
-0.4269,
-0.4214,
-0.4117,
-0.4025,
-0.3985,
-0.3955,
-0.3940,
-0.3926,
-0.3916,
-0.3880,
-0.3820,
-0.3722,
-0.3591,
-0.3511,
-0.3480,
-0.3470,
-0.3455,
-0.3439,
-0.3435,
-0.3427,
-0.3412,
-0.3392,
-0.3369,
-0.3347,
-0.3319,
-0.3277,
-0.3246,
-0.3224,
-0.3141,
-0.3059,
-0.3046,
-0.3043,
-0.2993,
-0.2888,
-0.2828,
-0.2824,
-0.2778,
-0.2715,
-0.2670,
-0.2632,
-0.2610,
-0.2567,
-0.2536,
-0.2528,
-0.2512,
-0.2478,
-0.2453,
-0.2429,
-0.2398,
-0.2375,
-0.2347,
-0.2306,
-0.2276,
-0.2248,
-0.2213,
-0.2188,
-0.2167,
-0.2150,
-0.2136,
-0.2124,
-0.2097,
-0.2057,
-0.2031,
-0.2020,
-0.2010,
-0.1978,
-0.1951,
-0.1910,
-0.1862,
-0.1830,
-0.1774,
-0.1730,
-0.1719,
-0.1683,
-0.1627,
-0.1582,
-0.1515,
-0.1461,
-0.1443,
-0.1417,
-0.1381,
-0.1345,
-0.1321,
-0.1300,
-0.1282,
-0.1232,
-0.1166,
-0.1069,
-0.0983,
-0.0948,
-0.0918,
-0.0885,
-0.0835,
-0.0763,
-0.0706,
-0.0668,
-0.0632,
-0.0583,
-0.0524,
-0.0503,
-0.0460,
-0.0357,
-0.0264,
-0.0207,
-0.0153,
-0.0060,
0.0056,
0.0121,
0.0143,
0.0176,
0.0210,
0.0243,
0.0272,
0.0292,
0.0339,
0.0371,
0.0381,
0.0421,
0.0453,
0.0471,
0.0493,
0.0603,
0.0716,
0.0742,
0.0784,
0.0815,
0.0832,
0.0922,
0.1024,
0.1101,
0.1172,
0.1238,
0.1300,
0.1371,
0.1464,
0.1517,
0.1562,
0.1618,
0.1651,
0.1704,
0.1789,
0.1847,
0.1871,
0.1881,
0.1903,
0.1958,
0.2002,
0.2092,
0.2212,
0.2273,
0.2351,
0.2400,
0.2412,
0.2516,
0.2611,
0.2622,
0.2690,
0.2792,
0.2873,
0.2912,
0.2936,
0.2965,
0.3008,
0.3047,
0.3051,
0.3106,
0.3164,
0.3232,
0.3296,
0.3323,
0.3433,
0.3575,
0.3640,
0.3664,
0.3700,
0.3778,
0.3843,
0.3911,
0.3973,
0.3999,
0.4063,
0.4136,
0.4172,
0.4251,
0.4358,
0.4405,
0.4422,
0.4426,
0.4431,
0.4475,
0.4531,
0.4556,
0.4569,
0.4599,
0.4633,
0.4640,
0.4647,
0.4693,
0.4747,
0.4761,
0.4765,
0.4807,
0.4849,
0.4851,
0.4865,
0.4949,
0.5035,
0.5050,
0.5107,
0.5182,
0.5214,
0.5238,
0.5313,
0.5427,
0.5527,
0.5617,
0.5685,
0.5714,
0.5733,
0.5764,
0.5933,
0.6167};
