const float conv6_weights_lut[256] = {-0.1412,
-0.1138,
-0.1063,
-0.1010,
-0.0976,
-0.0948,
-0.0922,
-0.0897,
-0.0872,
-0.0849,
-0.0831,
-0.0815,
-0.0797,
-0.0780,
-0.0768,
-0.0755,
-0.0740,
-0.0727,
-0.0715,
-0.0705,
-0.0694,
-0.0682,
-0.0671,
-0.0661,
-0.0650,
-0.0640,
-0.0631,
-0.0621,
-0.0611,
-0.0602,
-0.0594,
-0.0586,
-0.0578,
-0.0571,
-0.0563,
-0.0557,
-0.0550,
-0.0542,
-0.0534,
-0.0526,
-0.0520,
-0.0514,
-0.0506,
-0.0499,
-0.0492,
-0.0486,
-0.0479,
-0.0473,
-0.0467,
-0.0462,
-0.0457,
-0.0452,
-0.0447,
-0.0441,
-0.0435,
-0.0429,
-0.0424,
-0.0418,
-0.0413,
-0.0408,
-0.0401,
-0.0395,
-0.0390,
-0.0385,
-0.0380,
-0.0375,
-0.0370,
-0.0365,
-0.0360,
-0.0355,
-0.0350,
-0.0345,
-0.0340,
-0.0334,
-0.0329,
-0.0323,
-0.0318,
-0.0313,
-0.0307,
-0.0301,
-0.0297,
-0.0292,
-0.0287,
-0.0282,
-0.0277,
-0.0272,
-0.0268,
-0.0263,
-0.0258,
-0.0253,
-0.0249,
-0.0244,
-0.0239,
-0.0234,
-0.0228,
-0.0223,
-0.0218,
-0.0213,
-0.0208,
-0.0203,
-0.0198,
-0.0193,
-0.0188,
-0.0183,
-0.0179,
-0.0174,
-0.0170,
-0.0165,
-0.0160,
-0.0156,
-0.0151,
-0.0146,
-0.0141,
-0.0136,
-0.0132,
-0.0127,
-0.0123,
-0.0118,
-0.0113,
-0.0108,
-0.0103,
-0.0098,
-0.0094,
-0.0090,
-0.0085,
-0.0079,
-0.0074,
-0.0069,
-0.0065,
-0.0060,
-0.0055,
-0.0050,
-0.0046,
-0.0041,
-0.0037,
-0.0034,
-0.0030,
-0.0025,
-0.0021,
-0.0016,
-0.0012,
-0.0008,
-0.0003,
0.0002,
0.0006,
0.0011,
0.0015,
0.0021,
0.0026,
0.0031,
0.0037,
0.0042,
0.0046,
0.0051,
0.0055,
0.0060,
0.0064,
0.0068,
0.0073,
0.0078,
0.0083,
0.0087,
0.0092,
0.0097,
0.0102,
0.0107,
0.0111,
0.0115,
0.0120,
0.0124,
0.0128,
0.0133,
0.0138,
0.0144,
0.0149,
0.0153,
0.0157,
0.0162,
0.0166,
0.0170,
0.0175,
0.0180,
0.0185,
0.0191,
0.0197,
0.0202,
0.0208,
0.0212,
0.0217,
0.0222,
0.0227,
0.0232,
0.0237,
0.0241,
0.0246,
0.0251,
0.0256,
0.0261,
0.0266,
0.0271,
0.0277,
0.0282,
0.0288,
0.0294,
0.0299,
0.0304,
0.0310,
0.0315,
0.0320,
0.0325,
0.0332,
0.0339,
0.0346,
0.0353,
0.0359,
0.0366,
0.0373,
0.0379,
0.0385,
0.0391,
0.0398,
0.0406,
0.0412,
0.0419,
0.0426,
0.0433,
0.0440,
0.0447,
0.0455,
0.0464,
0.0472,
0.0479,
0.0486,
0.0494,
0.0503,
0.0511,
0.0519,
0.0529,
0.0541,
0.0550,
0.0560,
0.0571,
0.0585,
0.0600,
0.0616,
0.0631,
0.0647,
0.0665,
0.0685,
0.0707,
0.0732,
0.0761,
0.0798,
0.0846,
0.0916,
0.1306};
