const float conv0_bias_lut[256] = {-0.4050,
-0.4019,
-0.3988,
-0.3957,
-0.3926,
-0.3895,
-0.3864,
-0.3833,
-0.3801,
-0.3770,
-0.3739,
-0.3708,
-0.3677,
-0.3646,
-0.3615,
-0.3584,
-0.3553,
-0.3521,
-0.3490,
-0.3459,
-0.3428,
-0.3397,
-0.3366,
-0.3335,
-0.3304,
-0.3272,
-0.3241,
-0.3210,
-0.3179,
-0.3148,
-0.3117,
-0.3086,
-0.3055,
-0.3023,
-0.2992,
-0.2961,
-0.2930,
-0.2899,
-0.2868,
-0.2837,
-0.2806,
-0.2774,
-0.2743,
-0.2712,
-0.2681,
-0.2650,
-0.2619,
-0.2588,
-0.2557,
-0.2526,
-0.2494,
-0.2463,
-0.2432,
-0.2401,
-0.2370,
-0.2339,
-0.2308,
-0.2277,
-0.2245,
-0.2214,
-0.2183,
-0.2152,
-0.2121,
-0.2090,
-0.2059,
-0.2028,
-0.1996,
-0.1965,
-0.1934,
-0.1903,
-0.1872,
-0.1841,
-0.1810,
-0.1779,
-0.1747,
-0.1716,
-0.1685,
-0.1654,
-0.1623,
-0.1592,
-0.1561,
-0.1530,
-0.1499,
-0.1467,
-0.1436,
-0.1405,
-0.1374,
-0.1343,
-0.1312,
-0.1281,
-0.1250,
-0.1218,
-0.1187,
-0.1156,
-0.1125,
-0.1094,
-0.1063,
-0.1032,
-0.1001,
-0.0969,
-0.0938,
-0.0907,
-0.0876,
-0.0845,
-0.0814,
-0.0783,
-0.0752,
-0.0720,
-0.0689,
-0.0658,
-0.0627,
-0.0596,
-0.0565,
-0.0534,
-0.0503,
-0.0472,
-0.0440,
-0.0409,
-0.0378,
-0.0347,
-0.0316,
-0.0285,
-0.0254,
-0.0223,
-0.0191,
-0.0160,
-0.0129,
-0.0098,
-0.0067,
-0.0036,
-0.0005,
0.0026,
0.0058,
0.0089,
0.0120,
0.0151,
0.0182,
0.0213,
0.0244,
0.0275,
0.0307,
0.0338,
0.0369,
0.0400,
0.0431,
0.0462,
0.0493,
0.0524,
0.0555,
0.0587,
0.0618,
0.0649,
0.0680,
0.0711,
0.0742,
0.0773,
0.0804,
0.0836,
0.0867,
0.0898,
0.0929,
0.0960,
0.0991,
0.1022,
0.1053,
0.1085,
0.1116,
0.1147,
0.1178,
0.1209,
0.1240,
0.1271,
0.1302,
0.1334,
0.1365,
0.1396,
0.1427,
0.1458,
0.1489,
0.1520,
0.1551,
0.1582,
0.1614,
0.1645,
0.1676,
0.1707,
0.1738,
0.1769,
0.1800,
0.1831,
0.1863,
0.1894,
0.1925,
0.1956,
0.1987,
0.2018,
0.2049,
0.2080,
0.2112,
0.2143,
0.2174,
0.2205,
0.2236,
0.2267,
0.2298,
0.2329,
0.2361,
0.2392,
0.2423,
0.2454,
0.2485,
0.2516,
0.2547,
0.2578,
0.2609,
0.2641,
0.2672,
0.2703,
0.2734,
0.2765,
0.2796,
0.2827,
0.2858,
0.2890,
0.2921,
0.2952,
0.2983,
0.3014,
0.3045,
0.3076,
0.3107,
0.3139,
0.3170,
0.3201,
0.3232,
0.3263,
0.3294,
0.3325,
0.3356,
0.3388,
0.3419,
0.3450,
0.3481,
0.3512,
0.3543,
0.3574,
0.3605,
0.3636,
0.3668,
0.3699,
0.3730,
0.3761,
0.3792,
0.3823,
0.3854,
0.3885};
