const float conv3_weights_lut[256] = {-0.1787,
-0.1774,
-0.1761,
-0.1748,
-0.1735,
-0.1722,
-0.1709,
-0.1696,
-0.1683,
-0.1670,
-0.1657,
-0.1644,
-0.1631,
-0.1618,
-0.1605,
-0.1592,
-0.1579,
-0.1566,
-0.1553,
-0.1540,
-0.1527,
-0.1514,
-0.1501,
-0.1488,
-0.1475,
-0.1462,
-0.1449,
-0.1436,
-0.1423,
-0.1410,
-0.1397,
-0.1384,
-0.1371,
-0.1358,
-0.1345,
-0.1332,
-0.1319,
-0.1306,
-0.1293,
-0.1280,
-0.1267,
-0.1254,
-0.1241,
-0.1228,
-0.1215,
-0.1202,
-0.1189,
-0.1176,
-0.1163,
-0.1150,
-0.1137,
-0.1124,
-0.1111,
-0.1098,
-0.1085,
-0.1072,
-0.1059,
-0.1046,
-0.1034,
-0.1021,
-0.1008,
-0.0995,
-0.0982,
-0.0969,
-0.0956,
-0.0943,
-0.0930,
-0.0917,
-0.0904,
-0.0891,
-0.0878,
-0.0865,
-0.0852,
-0.0839,
-0.0826,
-0.0813,
-0.0800,
-0.0787,
-0.0774,
-0.0761,
-0.0748,
-0.0735,
-0.0722,
-0.0709,
-0.0696,
-0.0683,
-0.0670,
-0.0657,
-0.0644,
-0.0631,
-0.0618,
-0.0605,
-0.0592,
-0.0579,
-0.0566,
-0.0553,
-0.0540,
-0.0527,
-0.0514,
-0.0501,
-0.0488,
-0.0475,
-0.0462,
-0.0449,
-0.0436,
-0.0423,
-0.0410,
-0.0397,
-0.0384,
-0.0371,
-0.0358,
-0.0345,
-0.0332,
-0.0319,
-0.0306,
-0.0293,
-0.0280,
-0.0267,
-0.0254,
-0.0241,
-0.0228,
-0.0215,
-0.0202,
-0.0189,
-0.0176,
-0.0163,
-0.0150,
-0.0137,
-0.0124,
-0.0111,
-0.0098,
-0.0085,
-0.0072,
-0.0059,
-0.0046,
-0.0033,
-0.0020,
-0.0007,
0.0006,
0.0019,
0.0031,
0.0044,
0.0057,
0.0070,
0.0083,
0.0096,
0.0109,
0.0122,
0.0135,
0.0148,
0.0161,
0.0174,
0.0187,
0.0200,
0.0213,
0.0226,
0.0239,
0.0252,
0.0265,
0.0278,
0.0291,
0.0304,
0.0317,
0.0330,
0.0343,
0.0356,
0.0369,
0.0382,
0.0395,
0.0408,
0.0421,
0.0434,
0.0447,
0.0460,
0.0473,
0.0486,
0.0499,
0.0512,
0.0525,
0.0538,
0.0551,
0.0564,
0.0577,
0.0590,
0.0603,
0.0616,
0.0629,
0.0642,
0.0655,
0.0668,
0.0681,
0.0694,
0.0707,
0.0720,
0.0733,
0.0746,
0.0759,
0.0772,
0.0785,
0.0798,
0.0811,
0.0824,
0.0837,
0.0850,
0.0863,
0.0876,
0.0889,
0.0902,
0.0915,
0.0928,
0.0941,
0.0954,
0.0967,
0.0980,
0.0993,
0.1006,
0.1019,
0.1032,
0.1045,
0.1058,
0.1071,
0.1084,
0.1097,
0.1109,
0.1122,
0.1135,
0.1148,
0.1161,
0.1174,
0.1187,
0.1200,
0.1213,
0.1226,
0.1239,
0.1252,
0.1265,
0.1278,
0.1291,
0.1304,
0.1317,
0.1330,
0.1343,
0.1356,
0.1369,
0.1382,
0.1395,
0.1408,
0.1421,
0.1434,
0.1447,
0.1460,
0.1473,
0.1486,
0.1499,
0.1512,
0.1525};
