const float fc2_weights_lut[256] = {-0.3929,
-0.3900,
-0.3871,
-0.3841,
-0.3812,
-0.3783,
-0.3753,
-0.3724,
-0.3694,
-0.3665,
-0.3636,
-0.3606,
-0.3577,
-0.3547,
-0.3518,
-0.3489,
-0.3459,
-0.3430,
-0.3401,
-0.3371,
-0.3342,
-0.3312,
-0.3283,
-0.3254,
-0.3224,
-0.3195,
-0.3166,
-0.3136,
-0.3107,
-0.3077,
-0.3048,
-0.3019,
-0.2989,
-0.2960,
-0.2930,
-0.2901,
-0.2872,
-0.2842,
-0.2813,
-0.2784,
-0.2754,
-0.2725,
-0.2695,
-0.2666,
-0.2637,
-0.2607,
-0.2578,
-0.2549,
-0.2519,
-0.2490,
-0.2460,
-0.2431,
-0.2402,
-0.2372,
-0.2343,
-0.2313,
-0.2284,
-0.2255,
-0.2225,
-0.2196,
-0.2167,
-0.2137,
-0.2108,
-0.2078,
-0.2049,
-0.2020,
-0.1990,
-0.1961,
-0.1932,
-0.1902,
-0.1873,
-0.1843,
-0.1814,
-0.1785,
-0.1755,
-0.1726,
-0.1696,
-0.1667,
-0.1638,
-0.1608,
-0.1579,
-0.1550,
-0.1520,
-0.1491,
-0.1461,
-0.1432,
-0.1403,
-0.1373,
-0.1344,
-0.1315,
-0.1285,
-0.1256,
-0.1226,
-0.1197,
-0.1168,
-0.1138,
-0.1109,
-0.1079,
-0.1050,
-0.1021,
-0.0991,
-0.0962,
-0.0933,
-0.0903,
-0.0874,
-0.0844,
-0.0815,
-0.0786,
-0.0756,
-0.0727,
-0.0698,
-0.0668,
-0.0639,
-0.0609,
-0.0580,
-0.0551,
-0.0521,
-0.0492,
-0.0462,
-0.0433,
-0.0404,
-0.0374,
-0.0345,
-0.0316,
-0.0286,
-0.0257,
-0.0227,
-0.0198,
-0.0169,
-0.0139,
-0.0110,
-0.0081,
-0.0051,
-0.0022,
0.0008,
0.0037,
0.0066,
0.0096,
0.0125,
0.0155,
0.0184,
0.0213,
0.0243,
0.0272,
0.0301,
0.0331,
0.0360,
0.0390,
0.0419,
0.0448,
0.0478,
0.0507,
0.0536,
0.0566,
0.0595,
0.0625,
0.0654,
0.0683,
0.0713,
0.0742,
0.0772,
0.0801,
0.0830,
0.0860,
0.0889,
0.0918,
0.0948,
0.0977,
0.1007,
0.1036,
0.1065,
0.1095,
0.1124,
0.1153,
0.1183,
0.1212,
0.1242,
0.1271,
0.1300,
0.1330,
0.1359,
0.1389,
0.1418,
0.1447,
0.1477,
0.1506,
0.1535,
0.1565,
0.1594,
0.1624,
0.1653,
0.1682,
0.1712,
0.1741,
0.1770,
0.1800,
0.1829,
0.1859,
0.1888,
0.1917,
0.1947,
0.1976,
0.2006,
0.2035,
0.2064,
0.2094,
0.2123,
0.2152,
0.2182,
0.2211,
0.2241,
0.2270,
0.2299,
0.2329,
0.2358,
0.2387,
0.2417,
0.2446,
0.2476,
0.2505,
0.2534,
0.2564,
0.2593,
0.2623,
0.2652,
0.2681,
0.2711,
0.2740,
0.2769,
0.2799,
0.2828,
0.2858,
0.2887,
0.2916,
0.2946,
0.2975,
0.3004,
0.3034,
0.3063,
0.3093,
0.3122,
0.3151,
0.3181,
0.3210,
0.3240,
0.3269,
0.3298,
0.3328,
0.3357,
0.3386,
0.3416,
0.3445,
0.3475,
0.3504,
0.3533,
0.3563};
