const int conv0_weights_lut[256] = {-601,
-585,
-577,
-563,
-549,
-545,
-542,
-539,
-537,
-533,
-528,
-521,
-513,
-511,
-509,
-507,
-505,
-502,
-497,
-491,
-486,
-482,
-480,
-477,
-473,
-472,
-459,
-444,
-440,
-438,
-437,
-436,
-433,
-430,
-427,
-421,
-412,
-402,
-398,
-395,
-394,
-393,
-392,
-388,
-382,
-372,
-359,
-351,
-348,
-347,
-346,
-344,
-343,
-343,
-341,
-339,
-337,
-335,
-332,
-328,
-325,
-322,
-314,
-306,
-305,
-304,
-299,
-289,
-283,
-282,
-278,
-272,
-267,
-263,
-261,
-257,
-254,
-253,
-251,
-248,
-245,
-243,
-240,
-238,
-235,
-231,
-228,
-225,
-221,
-219,
-217,
-215,
-214,
-212,
-210,
-206,
-203,
-202,
-201,
-198,
-195,
-191,
-186,
-183,
-177,
-173,
-172,
-168,
-163,
-158,
-151,
-146,
-144,
-142,
-138,
-134,
-132,
-130,
-128,
-123,
-117,
-107,
-98,
-95,
-92,
-88,
-83,
-76,
-71,
-67,
-63,
-58,
-52,
-50,
-46,
-36,
-26,
-21,
-15,
-6,
6,
12,
14,
18,
21,
24,
27,
29,
34,
37,
38,
42,
45,
47,
49,
60,
72,
74,
78,
81,
83,
92,
102,
110,
117,
124,
130,
137,
146,
152,
156,
162,
165,
170,
179,
185,
187,
188,
190,
196,
200,
209,
221,
227,
235,
240,
241,
252,
261,
262,
269,
279,
287,
291,
294,
296,
301,
305,
305,
311,
316,
323,
330,
332,
343,
357,
364,
366,
370,
378,
384,
391,
397,
400,
406,
414,
417,
425,
436,
440,
442,
443,
443,
448,
453,
456,
457,
460,
463,
464,
465,
469,
475,
476,
476,
481,
485,
485,
486,
495,
504,
505,
511,
518,
521,
524,
531,
543,
553,
562,
569,
571,
573,
576,
593,
617};
