const int fc2_weights_lut[256] = {-390,
-380,
-366,
-358,
-355,
-347,
-340,
-333,
-327,
-317,
-308,
-302,
-295,
-293,
-289,
-285,
-281,
-278,
-274,
-270,
-266,
-260,
-255,
-253,
-250,
-247,
-245,
-242,
-239,
-238,
-237,
-232,
-228,
-225,
-223,
-220,
-217,
-214,
-212,
-210,
-208,
-206,
-205,
-204,
-201,
-198,
-196,
-195,
-193,
-191,
-189,
-187,
-184,
-182,
-179,
-175,
-173,
-171,
-170,
-168,
-167,
-165,
-162,
-160,
-159,
-158,
-157,
-154,
-151,
-148,
-145,
-143,
-142,
-140,
-135,
-130,
-127,
-124,
-122,
-119,
-112,
-107,
-105,
-103,
-101,
-101,
-99,
-95,
-90,
-88,
-86,
-83,
-81,
-80,
-77,
-71,
-68,
-66,
-64,
-59,
-53,
-49,
-46,
-43,
-41,
-39,
-37,
-34,
-29,
-26,
-24,
-21,
-18,
-12,
-4,
-1,
3,
7,
10,
12,
18,
24,
27,
32,
37,
41,
46,
49,
51,
55,
60,
63,
65,
67,
70,
72,
74,
76,
78,
79,
80,
82,
85,
88,
89,
91,
92,
95,
97,
98,
99,
100,
101,
102,
103,
104,
106,
108,
110,
110,
111,
113,
115,
118,
120,
120,
121,
122,
124,
125,
126,
127,
127,
128,
129,
131,
132,
133,
135,
135,
136,
137,
137,
137,
138,
138,
139,
140,
142,
143,
144,
145,
146,
147,
148,
149,
149,
150,
152,
153,
154,
155,
156,
158,
160,
163,
165,
166,
166,
167,
169,
171,
172,
173,
175,
176,
177,
178,
180,
182,
183,
185,
186,
187,
189,
192,
193,
195,
196,
197,
198,
200,
202,
204,
207,
209,
211,
212,
216,
220,
225,
230,
235,
238,
240,
246,
254,
259,
263,
267,
274,
295,
318,
336,
348,
353};
